<?xml version="1.0"?>
<MethodSetup Method="MLP::MLP3">
  <GeneralInfo>
    <Info name="TMVA Release" value="4.2.1 [262657]"/>
    <Info name="ROOT Release" value="6.16/00 [397312]"/>
    <Info name="Creator" value="marcel"/>
    <Info name="Date" value="Tue Jun  4 13:42:02 2019"/>
    <Info name="Host" value="Linux SFT-ubuntu-1804-3 4.15.0-38-generic #41-Ubuntu SMP Wed Oct 10 10:59:38 UTC 2018 x86_64 x86_64 x86_64 GNU/Linux"/>
    <Info name="Dir" value="/home/marcel/workspace/trackml/macro"/>
    <Info name="Training events" value="1700000"/>
    <Info name="TrainingTime" value="4.95319826e+03"/>
    <Info name="AnalysisType" value="Classification"/>
  </GeneralInfo>
  <Options>
    <Option name="NCycles" modified="Yes">500</Option>
    <Option name="HiddenLayers" modified="Yes">15,5</Option>
    <Option name="NeuronType" modified="Yes">tanh</Option>
    <Option name="RandomSeed" modified="No">1</Option>
    <Option name="EstimatorType" modified="No">CE</Option>
    <Option name="NeuronInputType" modified="No">sum</Option>
    <Option name="V" modified="Yes">False</Option>
    <Option name="VerbosityLevel" modified="No">Default</Option>
    <Option name="VarTransform" modified="Yes">N</Option>
    <Option name="H" modified="Yes">False</Option>
    <Option name="CreateMVAPdfs" modified="No">False</Option>
    <Option name="IgnoreNegWeightsInTraining" modified="No">False</Option>
    <Option name="TrainingMethod" modified="No">BP</Option>
    <Option name="LearningRate" modified="No">2.000000e-02</Option>
    <Option name="DecayRate" modified="No">1.000000e-02</Option>
    <Option name="TestRate" modified="Yes">5</Option>
    <Option name="EpochMonitoring" modified="No">False</Option>
    <Option name="Sampling" modified="No">1.000000e+00</Option>
    <Option name="SamplingEpoch" modified="No">1.000000e+00</Option>
    <Option name="SamplingImportance" modified="No">1.000000e+00</Option>
    <Option name="SamplingTraining" modified="No">True</Option>
    <Option name="SamplingTesting" modified="No">False</Option>
    <Option name="ResetStep" modified="No">50</Option>
    <Option name="Tau" modified="No">3.000000e+00</Option>
    <Option name="BPMode" modified="No">sequential</Option>
    <Option name="BatchSize" modified="No">-1</Option>
    <Option name="ConvergenceImprove" modified="No">1.000000e-30</Option>
    <Option name="ConvergenceTests" modified="No">-1</Option>
    <Option name="UseRegulator" modified="Yes">False</Option>
    <Option name="UpdateLimit" modified="No">10000</Option>
    <Option name="CalculateErrors" modified="No">False</Option>
    <Option name="WeightRange" modified="No">1.000000e+00</Option>
  </Options>
  <Variables NVar="10">
    <Variable VarIndex="0" Expression="rz1" Label="rz1" Title="rz1" Unit="" Internal="rz1" Type="F" Min="3.02008743e+01" Max="8.25294739e+02"/>
    <Variable VarIndex="1" Expression="phi1" Label="phi1" Title="phi1" Unit="" Internal="phi1" Type="F" Min="-3.14158201e+00" Max="3.14154339e+00"/>
    <Variable VarIndex="2" Expression="z1" Label="z1" Title="z1" Unit="" Internal="z1" Type="F" Min="-1.80450000e+03" Max="1.80450000e+03"/>
    <Variable VarIndex="3" Expression="rz2" Label="rz2" Title="rz2" Unit="" Internal="rz2" Type="F" Min="3.02568588e+01" Max="1.01716443e+03"/>
    <Variable VarIndex="4" Expression="phi2" Label="phi2" Title="phi2" Unit="" Internal="phi2" Type="F" Min="-3.14158201e+00" Max="3.14154339e+00"/>
    <Variable VarIndex="5" Expression="z2" Label="z2" Title="z2" Unit="" Internal="z2" Type="F" Min="-2.15450000e+03" Max="2.15450000e+03"/>
    <Variable VarIndex="6" Expression="rz3" Label="rz3" Title="rz3" Unit="" Internal="rz3" Type="F" Min="3.00867195e+01" Max="1.02297552e+03"/>
    <Variable VarIndex="7" Expression="phi3" Label="phi3" Title="phi3" Unit="" Internal="phi3" Type="F" Min="-3.14158201e+00" Max="3.14157224e+00"/>
    <Variable VarIndex="8" Expression="z3" Label="z3" Title="z3" Unit="" Internal="z3" Type="F" Min="-2.55450000e+03" Max="2.55450000e+03"/>
    <Variable VarIndex="9" Expression="log(score)" Label="log(score)" Title="log(score)" Unit="" Internal="log_score_" Type="F" Min="-3.11916237e+01" Max="6.40648079e+00"/>
  </Variables>
  <Spectators NSpec="0"/>
  <Classes NClass="2">
    <Class Name="Signal" Index="0"/>
    <Class Name="Background" Index="1"/>
  </Classes>
  <Transformations NTransformations="1">
    <Transform Name="Normalize">
      <Selection>
        <Input NInputs="10">
          <Input Type="Variable" Label="rz1" Expression="rz1"/>
          <Input Type="Variable" Label="phi1" Expression="phi1"/>
          <Input Type="Variable" Label="z1" Expression="z1"/>
          <Input Type="Variable" Label="rz2" Expression="rz2"/>
          <Input Type="Variable" Label="phi2" Expression="phi2"/>
          <Input Type="Variable" Label="z2" Expression="z2"/>
          <Input Type="Variable" Label="rz3" Expression="rz3"/>
          <Input Type="Variable" Label="phi3" Expression="phi3"/>
          <Input Type="Variable" Label="z3" Expression="z3"/>
          <Input Type="Variable" Label="log(score)" Expression="log(score)"/>
        </Input>
        <Output NOutputs="10">
          <Output Type="Variable" Label="rz1" Expression="rz1"/>
          <Output Type="Variable" Label="phi1" Expression="phi1"/>
          <Output Type="Variable" Label="z1" Expression="z1"/>
          <Output Type="Variable" Label="rz2" Expression="rz2"/>
          <Output Type="Variable" Label="phi2" Expression="phi2"/>
          <Output Type="Variable" Label="z2" Expression="z2"/>
          <Output Type="Variable" Label="rz3" Expression="rz3"/>
          <Output Type="Variable" Label="phi3" Expression="phi3"/>
          <Output Type="Variable" Label="z3" Expression="z3"/>
          <Output Type="Variable" Label="log(score)" Expression="log(score)"/>
        </Output>
      </Selection>
      <Class ClassIndex="0">
        <Ranges>
          <Range Index="0" Min="3.0200874328613281e+01" Max="8.2529473876953125e+02"/>
          <Range Index="1" Min="-3.1415820121765137e+00" Max="3.1415433883666992e+00"/>
          <Range Index="2" Min="-1.8045000000000000e+03" Max="1.8045000000000000e+03"/>
          <Range Index="3" Min="3.4427795410156250e+01" Max="1.0171644287109375e+03"/>
          <Range Index="4" Min="-3.1415784358978271e+00" Max="3.1415433883666992e+00"/>
          <Range Index="5" Min="-2.1545000000000000e+03" Max="2.1545000000000000e+03"/>
          <Range Index="6" Min="3.0875724792480469e+01" Max="1.0220281982421875e+03"/>
          <Range Index="7" Min="-3.1415820121765137e+00" Max="3.1415722370147705e+00"/>
          <Range Index="8" Min="-2.5545000000000000e+03" Max="2.5545000000000000e+03"/>
          <Range Index="9" Min="-3.1191623687744141e+01" Max="6.3915038108825684e+00"/>
        </Ranges>
      </Class>
      <Class ClassIndex="1">
        <Ranges>
          <Range Index="0" Min="3.0200874328613281e+01" Max="8.2527404785156250e+02"/>
          <Range Index="1" Min="-3.1415801048278809e+00" Max="3.1415433883666992e+00"/>
          <Range Index="2" Min="-1.8045000000000000e+03" Max="1.8045000000000000e+03"/>
          <Range Index="3" Min="3.0256858825683594e+01" Max="1.0171644287109375e+03"/>
          <Range Index="4" Min="-3.1415820121765137e+00" Max="3.1415367126464844e+00"/>
          <Range Index="5" Min="-2.1545000000000000e+03" Max="2.1545000000000000e+03"/>
          <Range Index="6" Min="3.0086719512939453e+01" Max="1.0229755249023438e+03"/>
          <Range Index="7" Min="-3.1415801048278809e+00" Max="3.1415722370147705e+00"/>
          <Range Index="8" Min="-2.5545000000000000e+03" Max="2.5545000000000000e+03"/>
          <Range Index="9" Min="-1.0598812103271484e+01" Max="6.4064807891845703e+00"/>
        </Ranges>
      </Class>
      <Class ClassIndex="2">
        <Ranges>
          <Range Index="0" Min="3.0200874328613281e+01" Max="8.2529473876953125e+02"/>
          <Range Index="1" Min="-3.1415820121765137e+00" Max="3.1415433883666992e+00"/>
          <Range Index="2" Min="-1.8045000000000000e+03" Max="1.8045000000000000e+03"/>
          <Range Index="3" Min="3.0256858825683594e+01" Max="1.0171644287109375e+03"/>
          <Range Index="4" Min="-3.1415820121765137e+00" Max="3.1415433883666992e+00"/>
          <Range Index="5" Min="-2.1545000000000000e+03" Max="2.1545000000000000e+03"/>
          <Range Index="6" Min="3.0086719512939453e+01" Max="1.0229755249023438e+03"/>
          <Range Index="7" Min="-3.1415820121765137e+00" Max="3.1415722370147705e+00"/>
          <Range Index="8" Min="-2.5545000000000000e+03" Max="2.5545000000000000e+03"/>
          <Range Index="9" Min="-3.1191623687744141e+01" Max="6.4064807891845703e+00"/>
        </Ranges>
      </Class>
    </Transform>
  </Transformations>
  <MVAPdfs/>
  <Weights>
    <Layout NLayers="4">
      <Layer Index="0" NNeurons="11">
        <Neuron NSynapses="15">
          -6.0695666896601645e+00 -1.5862621557196346e+00 -1.0863470272558966e+00 -9.2790054971453750e-01 -6.4835163843938286e+00 -1.5079259945523293e+00 -1.3290576977851874e+01 -3.6002861490081806e+00 -2.0625390747309094e+01 -2.1538214611315901e+01 -3.7822695735916301e+00 -4.9595299965767676e+00 1.0084670116806985e+01 -2.7018786505383270e+00 2.7400344444264957e+00 
        </Neuron>
        <Neuron NSynapses="15">
          -2.4133737100527722e-01 1.3992210485376244e-01 2.4782042048967713e-03 -5.3916541480182580e-02 -4.1062680104580987e-02 -2.8693514853103428e-02 -2.2717446383390941e-01 -1.2383926274756381e+00 2.9847559988950972e-01 -8.1830349025810573e-02 9.8619961558558761e-02 -1.3219075205422297e+00 -2.0871310255413309e-02 4.3831003336794522e-01 9.0258948598643626e-02 
        </Neuron>
        <Neuron NSynapses="15">
          -6.0224843678490867e+00 8.5252038576652189e-01 -2.0793551228395493e+00 -5.2153005298514576e-01 -1.5253898678484374e+01 -8.9677540304033432e+00 1.4327197032128989e+01 5.2865735556330484e-03 -1.0575209629473783e+01 5.0286931532733314e+00 2.9259705653002759e+00 -5.6404693395732810e+00 3.4637070851852041e+00 5.5969871564305429e-01 3.9843948648495404e+00 
        </Neuron>
        <Neuron NSynapses="15">
          -7.5471410309032230e+00 -1.0811809687047591e+00 8.2357847679147973e+00 4.7847603787308572e+01 6.9284243753257364e+00 6.0338397240732151e+00 6.5948511950855444e+00 -1.0597578005834620e+01 1.7458642474546920e+01 1.7656377970947617e+01 5.0127693151810284e+00 -4.5686039020664326e+00 -9.8489426040509009e+00 1.8184177658676312e+01 -1.1110172220031890e+01 
        </Neuron>
        <Neuron NSynapses="15">
          3.5301419533684208e-01 -1.2806916579747216e-01 -5.9510472057743527e-02 -6.6523166804255504e-02 -1.7260304815898403e-01 -1.0855816660515197e-01 -1.3116423977476435e-01 6.3560283084269131e-01 4.8967570099250853e-02 1.0803382347625282e-01 -4.2014578879010639e-02 1.7019862695303742e+00 4.0023918331445599e-02 -1.0102575212293301e+00 1.7918514754851358e-02 
        </Neuron>
        <Neuron NSynapses="15">
          4.2764142801179483e+00 5.4805069507372774e+00 2.4368593249678616e+00 -8.2638543734151204e-01 -7.1431849685276982e-01 6.7010263386077460e+00 -7.6098952373794440e+00 5.0194495481071080e+00 -7.6589517005259522e-01 6.0505838103639658e+00 -5.5071705714414474e+00 5.8337377266937307e-01 -3.3997053572820413e+00 9.4665041138231237e-02 -2.2675484402804487e+00 
        </Neuron>
        <Neuron NSynapses="15">
          9.5451078518705881e+00 1.7312386345890791e+00 -5.3820763759806596e+00 -4.3286778374486126e+01 1.6617802130967452e+00 1.8146250378036566e+00 7.1927180260843837e+00 -6.2827019282406917e+00 1.9090302747164642e-01 9.5839150529985224e-03 2.0886266605348545e+00 -9.3671837783407774e-01 -1.0130511882626261e+00 2.4556696352325607e+00 -7.5220220881858224e-01 
        </Neuron>
        <Neuron NSynapses="15">
          -1.5579592649311172e-01 2.8336344242164788e-02 8.0009084816621140e-02 1.3907324542376384e-01 1.2667514055175449e-01 1.3241010135794809e-01 2.3273957902555292e-01 5.7757456083231773e-01 -2.5155332427196408e-01 -9.2721797815664073e-02 -6.4341143540843429e-02 -5.0082720590523655e-01 1.2143293187600396e-02 4.3457454382868194e-01 -7.6187124063628348e-02 
        </Neuron>
        <Neuron NSynapses="15">
          2.3817142861186720e+00 -7.2000173443970299e+00 -1.4158136040233372e-02 1.3957373732666414e+00 2.1350200410879264e+01 9.7287229906836306e+00 -9.7873310551832287e+00 -5.1445569563750748e+00 3.3265938381023319e+00 -4.1323361887403343e-01 1.3655144080646653e+00 1.4631988249051238e+00 -1.2302167693577219e-01 -7.1205526112202433e-01 -1.7384746864779883e+00 
        </Neuron>
        <Neuron NSynapses="15">
          3.0127730312643774e+01 2.5143031189193223e+01 -2.0127152073471198e+01 -2.8661773542697744e+00 1.2578659912422165e+01 9.9751483214972865e+00 1.1738549042940296e+01 -1.2643492666705651e+01 -9.7671113605030992e+00 -5.5460650869108088e+00 2.5610888000084748e+00 -4.6078961064954560e-01 1.4689581101450497e+00 6.9548513392591371e-01 1.2619479656114772e+01 
        </Neuron>
        <Neuron NSynapses="15">
          -2.4658237151538223e+01 -1.9313737969318787e+01 1.9608744192608757e+01 5.1708371882300419e+00 -5.9134411520361230e+00 1.1090912165101845e+00 -7.6235738986433983e+00 -5.4000187138101881e+00 4.1868440084536322e+00 -1.4309707151422408e+00 2.3698678278347569e+00 -2.2725331434699698e+00 -1.3962865893533713e-01 -4.0227773978494188e+00 -1.4955572123339344e+01 
        </Neuron>
      </Layer>
      <Layer Index="1" NNeurons="16">
        <Neuron NSynapses="5">
          2.7972095566458255e+00 -1.5148615234870547e-01 1.7394251919786369e-01 -1.2559359567148489e+00 5.7742549984280194e+00 
        </Neuron>
        <Neuron NSynapses="5">
          6.7112149236424701e+00 2.6287914532871910e+00 1.0574198038484117e+00 1.6645523063726272e-01 1.0785328143947783e+00 
        </Neuron>
        <Neuron NSynapses="5">
          -2.0538005910632871e+00 -2.9762108522885233e+00 -1.1021534973069343e+01 -1.3003307942062345e+00 -3.4851455062881098e-01 
        </Neuron>
        <Neuron NSynapses="5">
          -2.4927815891023770e+00 6.2701574558436137e+00 1.0573696162540580e+01 7.9714234528844408e-01 -2.2573138517547036e-02 
        </Neuron>
        <Neuron NSynapses="5">
          6.2088128672932508e-01 1.0165998935499510e-02 1.4219092773959745e+00 3.2433100386812849e-03 1.0881579144944130e-01 
        </Neuron>
        <Neuron NSynapses="5">
          -1.4017333841710586e+00 1.9812021738665766e+00 1.7692074283560197e+00 -6.4470232603228228e-01 -3.2677786722366603e-01 
        </Neuron>
        <Neuron NSynapses="5">
          -4.0847201668745594e+00 1.3583753645204433e-01 1.4680574314841239e+00 -4.1748390149587228e-01 4.8575475383873373e-01 
        </Neuron>
        <Neuron NSynapses="5">
          9.0490471631945235e-01 -6.4837973472388921e-01 -1.3408330204406815e-01 -1.3305910693710477e+00 3.2477453276631751e-01 
        </Neuron>
        <Neuron NSynapses="5">
          -1.4943362142191150e+00 1.8977404940034867e-01 -3.3998039104869510e-01 -5.7154033854210015e-02 1.3272421101460510e+00 
        </Neuron>
        <Neuron NSynapses="5">
          -1.9664151848759430e+00 1.3258733943519083e-01 -4.0015607648481616e-01 -2.5840024663223726e-01 1.1864405156838900e+00 
        </Neuron>
        <Neuron NSynapses="5">
          1.7265837266305735e+00 8.0784870660984520e+00 5.0948189745920391e+00 -4.3202677935519942e+00 -3.9820761075373254e+00 
        </Neuron>
        <Neuron NSynapses="5">
          -7.4602011214301611e-01 -1.3569173744834889e-01 -4.3070861780850400e-02 -5.3420035124070919e-01 -3.4644193293996478e-01 
        </Neuron>
        <Neuron NSynapses="5">
          2.6800645130764961e-01 5.2220562914453794e-01 6.6076844379040572e-02 -5.5064913168845875e-01 2.5869779913481437e+00 
        </Neuron>
        <Neuron NSynapses="5">
          8.5268819217469360e+00 1.6799595627267276e+00 -2.5220816184542333e-01 -5.4760235384546796e-01 -5.6118829435122841e-01 
        </Neuron>
        <Neuron NSynapses="5">
          5.5811279660227375e-01 9.5593798735555235e-01 1.1774889295306683e+00 -3.5760739588650653e-01 -6.1706202411591457e-02 
        </Neuron>
        <Neuron NSynapses="5">
          -1.8876056258047353e+00 4.1601809570851556e+00 1.3248396807217162e+01 6.5967665475756920e+00 -5.4583848836719300e+00 
        </Neuron>
      </Layer>
      <Layer Index="2" NNeurons="6">
        <Neuron NSynapses="1">
          5.1938692838861544e-01 
        </Neuron>
        <Neuron NSynapses="1">
          -1.3118976242479601e+00 
        </Neuron>
        <Neuron NSynapses="1">
          -1.9676227392501955e+00 
        </Neuron>
        <Neuron NSynapses="1">
          9.7268070376090987e-01 
        </Neuron>
        <Neuron NSynapses="1">
          -2.3778680295722268e+00 
        </Neuron>
        <Neuron NSynapses="1">
          -5.1540321247119880e-01 
        </Neuron>
      </Layer>
      <Layer Index="3" NNeurons="1">
        <Neuron NSynapses="0"/>
      </Layer>
    </Layout>
  </Weights>
</MethodSetup>
